-8.908948897653608257e-02
4.012561005945871062e-01
-9.563424924677949024e-01
-3.393237699070748570e-01
-6.841765013223959357e-01
-1.794861314191922741e+00
-8.312208452031064621e-01
-2.852897278424274541e-01
-1.556478549271649026e-01
3.846489782301613231e-02
2.739382142934175188e-02
3.636157252110448490e-01
-1.103785547549776674e-01
6.587443474849010716e-01
-9.130282794571142890e-01
3.341020423273827755e-01
-1.669472818159911387e-01
1.071944453532412134e-01
-6.941737343760880918e-01
3.409227919844004528e-02
5.883357322121112176e-01
1.190383093915665214e+00
1.458674041309492020e-01
-2.546463832441965558e-02
-8.934757146198802832e-03
7.535019256766446460e-01
9.939899321366182233e-03
-9.373520612310205502e-01
-8.402153917662101845e-01
9.356988252033370257e-01
-9.338606215463860494e-01
1.679358247883752098e-01
8.812541955127931592e-01
-2.581454903203506679e-01
1.149730333732785492e-01
-3.649516007760723046e-01
4.215283728084816550e-01
5.834990330834792793e-01
-2.293612405066277393e+00
4.809417008300028717e-01
2.345223467087781954e-01
5.268411414613981547e-01
-2.400328626864348391e-01
7.185478754994348849e-01
-8.565401774576202332e-01
-7.629366912702856274e-02
7.412942544358965824e-01
4.002957300095102977e-02
-3.527808815348708327e-02
-6.588666465045116549e-01
-7.791886759913818628e-01
2.590932679243972414e-01
-6.462897614396555246e-02
-4.703955355908900904e-01
2.522224495360905760e-01
-5.074073362540372223e-01
1.394320104588591125e-01
-6.624866491180492201e-01
1.590961998992939663e-01
-8.486179524418185904e-03
-7.524601043958438762e-01
1.866512304469706007e-01
4.389062046309062937e-01
-1.459945349757637012e-01
-8.448330394859686621e-01
5.518696160077807278e-02
6.718316457695041599e-01
2.337724090403675223e-02
4.261395146668182088e-01
2.332692765685911163e-01
5.633982945764548500e-01
-7.654230473099348231e-01
-6.896298520067808413e-01
2.978009174784956858e+00
-1.769079774141076034e-01
-1.958052441122838383e+00
5.935709040860558394e-01
-3.178102899126071246e-01
4.760117540530329205e-01
4.318758681736756255e-01
2.240220656853274261e-01
2.235768645053693160e-01
-2.063463013259402012e-01
-3.939833411263171659e-01
-5.806032263916411917e-01
7.232544303247124828e-01
-1.230821787061401468e-01
6.776693341944020621e-02
3.357403738455324582e-01
-6.889151093912558865e-01
-9.743427616262453350e-01
5.999300593941232496e-01
7.761662232082520985e-02
-6.397144283089317707e-02
1.105243375474816020e-02
-6.211715301469248329e-01
-3.477447191444298612e-03
-8.684798891883763194e-02
-9.391199899177584687e-01
2.720676342292858152e-01
-3.710842224911384823e-01
-1.276750210995797552e+00
7.358714200603431177e-01
4.287252814132762047e-01
8.551133863726619877e-01
-7.598831201066127417e-01
-1.426746360629194132e+00
7.365206935684115441e-01
4.315663291888115261e+00
4.495178440986916657e-01
-3.682018574356484386e+00
-1.122078877214430087e-01
2.675219200801112196e-01
